<?xml version="1.0"?>
<opencv_storage>
<!-- Automatically converted from /home/jq/data/malaria/haarcascade, window size = 40x40 -->
<haarcascade_plasmodium type_id="opencv-haar-classifier">
  <size>
    40 40</size>
  <stages>
    <_>
      <!-- stage 0 -->
      <trees>
        <_>
          <!-- tree 0 -->
          <_>
            <!-- root node -->
            <feature>
              <rects>
                <_>
                  0 0 4 16 -1.</_>
                <_>
                  0 8 4 8 2.</_></rects>
              <tilted>0</tilted></feature>
            <threshold>1.3018710305914283e-03</threshold>
            <left_val>-1.</left_val>
            <right_val>8.8235288858413696e-01</right_val></_></_></trees>
      <stage_threshold>8.8235288858413696e-01</stage_threshold>
      <parent>-1</parent>
      <next>-1</next></_>
    <_>
      <!-- stage 1 -->
      <trees>
        <_>
          <!-- tree 0 -->
          <_>
            <!-- root node -->
            <feature>
              <rects>
                <_>
                  2 0 32 14 -1.</_>
                <_>
                  2 0 16 7 2.</_>
                <_>
                  18 7 16 7 2.</_></rects>
              <tilted>0</tilted></feature>
            <threshold>-2.8888929635286331e-02</threshold>
            <left_val>-1.</left_val>
            <right_val>7.7777779102325439e-01</right_val></_></_></trees>
      <stage_threshold>7.7777779102325439e-01</stage_threshold>
      <parent>0</parent>
      <next>-1</next></_>
    <_>
      <!-- stage 2 -->
      <trees>
        <_>
          <!-- tree 0 -->
          <_>
            <!-- root node -->
            <feature>
              <rects>
                <_>
                  0 1 2 12 -1.</_>
                <_>
                  0 1 1 6 2.</_>
                <_>
                  1 7 1 6 2.</_></rects>
              <tilted>0</tilted></feature>
            <threshold>6.8852583353873342e-05</threshold>
            <left_val>6.8421047925949097e-01</left_val>
            <right_val>-1.</right_val></_></_></trees>
      <stage_threshold>6.8421047925949097e-01</stage_threshold>
      <parent>1</parent>
      <next>-1</next></_>
    <_>
      <!-- stage 3 -->
      <trees>
        <_>
          <!-- tree 0 -->
          <_>
            <!-- root node -->
            <feature>
              <rects>
                <_>
                  4 31 4 2 -1.</_>
                <_>
                  4 31 2 1 2.</_>
                <_>
                  6 32 2 1 2.</_></rects>
              <tilted>0</tilted></feature>
            <threshold>-2.7490590582601726e-05</threshold>
            <left_val>-1.</left_val>
            <right_val>6.8421047925949097e-01</right_val></_></_></trees>
      <stage_threshold>6.8421047925949097e-01</stage_threshold>
      <parent>2</parent>
      <next>-1</next></_>
    <_>
      <!-- stage 4 -->
      <trees>
        <_>
          <!-- tree 0 -->
          <_>
            <!-- root node -->
            <feature>
              <rects>
                <_>
                  4 25 24 1 -1.</_>
                <_>
                  12 25 8 1 3.</_></rects>
              <tilted>0</tilted></feature>
            <threshold>-5.2014470566064119e-04</threshold>
            <left_val>-8.7500000000000000e-01</left_val>
            <right_val>8.7500000000000000e-01</right_val></_></_>
        <_>
          <!-- tree 1 -->
          <_>
            <!-- root node -->
            <feature>
              <rects>
                <_>
                  14 0 13 3 -1.</_>
                <_>
                  14 1 13 1 3.</_></rects>
              <tilted>0</tilted></feature>
            <threshold>2.9602050199173391e-04</threshold>
            <left_val>-6.6322308778762817e-01</left_val>
            <right_val>8.8735258579254150e-01</right_val></_></_></trees>
      <stage_threshold>1.2352650053799152e-02</stage_threshold>
      <parent>3</parent>
      <next>-1</next></_>
    <_>
      <!-- stage 5 -->
      <trees>
        <_>
          <!-- tree 0 -->
          <_>
            <!-- root node -->
            <feature>
              <rects>
                <_>
                  1 0 24 24 -1.</_>
                <_>
                  9 0 8 24 3.</_></rects>
              <tilted>0</tilted></feature>
            <threshold>-1.5163199976086617e-02</threshold>
            <left_val>-1.</left_val>
            <right_val>6.8421047925949097e-01</right_val></_></_></trees>
      <stage_threshold>6.8421047925949097e-01</stage_threshold>
      <parent>4</parent>
      <next>-1</next></_>
    <_>
      <!-- stage 6 -->
      <trees>
        <_>
          <!-- tree 0 -->
          <_>
            <!-- root node -->
            <feature>
              <rects>
                <_>
                  0 0 24 18 -1.</_>
                <_>
                  8 0 8 18 3.</_></rects>
              <tilted>0</tilted></feature>
            <threshold>8.8898343965411186e-03</threshold>
            <left_val>1.</left_val>
            <right_val>-1.</right_val></_></_></trees>
      <stage_threshold>1.</stage_threshold>
      <parent>5</parent>
      <next>-1</next></_>
    <_>
      <!-- stage 7 -->
      <trees>
        <_>
          <!-- tree 0 -->
          <_>
            <!-- root node -->
            <feature>
              <rects>
                <_>
                  1 32 33 2 -1.</_>
                <_>
                  12 32 11 2 3.</_></rects>
              <tilted>0</tilted></feature>
            <threshold>3.9532477967441082e-03</threshold>
            <left_val>6.8421047925949097e-01</left_val>
            <right_val>-1.</right_val></_></_></trees>
      <stage_threshold>6.8421047925949097e-01</stage_threshold>
      <parent>6</parent>
      <next>-1</next></_>
    <_>
      <!-- stage 8 -->
      <trees>
        <_>
          <!-- tree 0 -->
          <_>
            <!-- root node -->
            <feature>
              <rects>
                <_>
                  0 18 27 3 -1.</_>
                <_>
                  9 18 9 3 3.</_></rects>
              <tilted>0</tilted></feature>
            <threshold>1.5085609629750252e-03</threshold>
            <left_val>8.8235288858413696e-01</left_val>
            <right_val>-1.</right_val></_></_></trees>
      <stage_threshold>8.8235288858413696e-01</stage_threshold>
      <parent>7</parent>
      <next>-1</next></_>
    <_>
      <!-- stage 9 -->
      <trees>
        <_>
          <!-- tree 0 -->
          <_>
            <!-- root node -->
            <feature>
              <rects>
                <_>
                  12 28 2 9 -1.</_>
                <_>
                  12 31 2 3 3.</_></rects>
              <tilted>0</tilted></feature>
            <threshold>3.0954298563301563e-04</threshold>
            <left_val>-7.6470589637756348e-01</left_val>
            <right_val>8.6666667461395264e-01</right_val></_></_>
        <_>
          <!-- tree 1 -->
          <_>
            <!-- root node -->
            <feature>
              <rects>
                <_>
                  24 9 3 27 -1.</_>
                <_>
                  24 18 3 9 3.</_></rects>
              <tilted>0</tilted></feature>
            <threshold>3.5751101095229387e-03</threshold>
            <left_val>-5.1516437530517578e-01</left_val>
            <right_val>4.8626860976219177e-01</right_val></_></_></trees>
      <stage_threshold>-2.7843728661537170e-01</stage_threshold>
      <parent>8</parent>
      <next>-1</next></_>
    <_>
      <!-- stage 10 -->
      <trees>
        <_>
          <!-- tree 0 -->
          <_>
            <!-- root node -->
            <feature>
              <rects>
                <_>
                  6 30 6 8 -1.</_>
                <_>
                  6 30 3 4 2.</_>
                <_>
                  9 34 3 4 2.</_></rects>
              <tilted>0</tilted></feature>
            <threshold>7.2594062658026814e-05</threshold>
            <left_val>-6.8421047925949097e-01</left_val>
            <right_val>1.</right_val></_></_>
        <_>
          <!-- tree 1 -->
          <_>
            <!-- root node -->
            <feature>
              <rects>
                <_>
                  23 29 17 6 -1.</_>
                <_>
                  23 31 17 2 3.</_></rects>
              <tilted>0</tilted></feature>
            <threshold>-3.8528300356119871e-03</threshold>
            <left_val>1.</left_val>
            <right_val>-1.0486649721860886e-01</right_val></_></_>
        <_>
          <!-- tree 2 -->
          <_>
            <!-- root node -->
            <feature>
              <rects>
                <_>
                  0 30 5 3 -1.</_>
                <_>
                  0 31 5 1 3.</_></rects>
              <tilted>0</tilted></feature>
            <threshold>2.2645409626420587e-04</threshold>
            <left_val>-7.3964172601699829e-01</left_val>
            <right_val>9.9999982118606567e-01</right_val></_></_></trees>
      <stage_threshold>1.5549179911613464e-01</stage_threshold>
      <parent>9</parent>
      <next>-1</next></_>
    <_>
      <!-- stage 11 -->
      <trees>
        <_>
          <!-- tree 0 -->
          <_>
            <!-- root node -->
            <feature>
              <rects>
                <_>
                  2 1 15 15 -1.</_>
                <_>
                  7 1 5 15 3.</_></rects>
              <tilted>0</tilted></feature>
            <threshold>-3.0422019772231579e-03</threshold>
            <left_val>-1.</left_val>
            <right_val>7.7777779102325439e-01</right_val></_></_></trees>
      <stage_threshold>7.7777779102325439e-01</stage_threshold>
      <parent>10</parent>
      <next>-1</next></_>
    <_>
      <!-- stage 12 -->
      <trees>
        <_>
          <!-- tree 0 -->
          <_>
            <!-- root node -->
            <feature>
              <rects>
                <_>
                  2 4 3 33 -1.</_>
                <_>
                  3 4 1 33 3.</_></rects>
              <tilted>0</tilted></feature>
            <threshold>1.9998609786853194e-04</threshold>
            <left_val>6.8421047925949097e-01</left_val>
            <right_val>-1.</right_val></_></_></trees>
      <stage_threshold>6.8421047925949097e-01</stage_threshold>
      <parent>11</parent>
      <next>-1</next></_>
    <_>
      <!-- stage 13 -->
      <trees>
        <_>
          <!-- tree 0 -->
          <_>
            <!-- root node -->
            <feature>
              <rects>
                <_>
                  0 17 14 20 -1.</_>
                <_>
                  7 17 7 20 2.</_></rects>
              <tilted>0</tilted></feature>
            <threshold>-1.0024770162999630e-02</threshold>
            <left_val>-1.</left_val>
            <right_val>7.7777779102325439e-01</right_val></_></_></trees>
      <stage_threshold>7.7777779102325439e-01</stage_threshold>
      <parent>12</parent>
      <next>-1</next></_></stages></haarcascade_plasmodium>
</opencv_storage>
